{
	"inputlength": 9,
	"structure": [
		9,
		9
	],
	"layers": 2,
	"learningRate": 0.01,
	"activations": [
		"sigmoid",
		"softmax"
	],
	"weights": [
		{
			"rows": 9,
			"columns": 9,
			"data": [
				[
					3.048027066718115,
					0.21707278998292504,
					-0.18231312406590416,
					-0.10341492656541808,
					2.864487837915363,
					0.1447609111995304,
					-0.28124866202102916,
					0.768514685060358,
					-0.06059456169430887
				],
				[
					-0.8379412924305787,
					-10.26804544460985,
					6.151347076150051,
					1.0405490955930592,
					13.677326712319466,
					2.7387735727516906,
					-0.16332992311086336,
					1.279923185998295,
					0.05111851226759343
				],
				[
					5.226303751958395,
					-10.348314026488362,
					7.679099196380331,
					-2.48091859252263,
					5.296737287432329,
					3.5137538272397872,
					0.047018167919037575,
					12.317352182596867,
					-0.06010953442722899
				],
				[
					9.71972162674567,
					-3.627148864274483,
					3.9910852982456873,
					-2.7995351564723037,
					-4.189073180322689,
					-8.996430010811263,
					0.11689641418040472,
					-3.9354646003130713,
					0.1414101538157093
				],
				[
					-6.384476009329108,
					2.001864210111204,
					-8.277291608901047,
					15.686359165018116,
					-2.2193237072920287,
					-0.657209429021365,
					0.10200456138598801,
					-4.343281429478161,
					-0.045162478087375404
				],
				[
					1.7006477361123638,
					6.349433891882496,
					-1.843681769684071,
					-0.8535057402303456,
					0.6451551881621402,
					-7.339349058403545,
					0.01915063985177096,
					-2.9679490518574694,
					0.15604224181550677
				],
				[
					-12.096511507247875,
					-1.002815770881204,
					-3.011475539752661,
					-5.7947123615953515,
					-17.060374271266816,
					3.244852105967935,
					0.2113004606833751,
					-0.0012563909519876801,
					-0.26807494229626044
				],
				[
					-2.545231583114587,
					11.072916741852557,
					0.022066735023598884,
					0.5537591079179552,
					-0.2530855143066313,
					2.6589489581844736,
					-0.07862560613694443,
					-2.1868279964192707,
					-0.022989781879046402
				],
				[
					2.268363216179203,
					5.475439257055777,
					-4.680359802416426,
					-5.2776212735492525,
					0.38673714832615885,
					5.013583525711635,
					-0.02733467724340922,
					-0.13743844474787031,
					-0.07408115207773647
				]
			]
		},
		{
			"rows": 9,
			"columns": 9,
			"data": [
				[
					0.47636414756672074,
					8.16098960872279,
					5.418006077246353,
					-3.143775284907574,
					8.95957443496674,
					1.7901210004250094,
					3.437922077266984,
					0.09469974975657082,
					6.842973661034979
				],
				[
					0.29073209425373286,
					1.9220025265996266,
					-7.610770523121756,
					-0.45461194364033414,
					4.067269628353158,
					3.351013013237189,
					4.720114438705524,
					3.674335515036094,
					-0.40345103327459936
				],
				[
					-0.0958031739531613,
					1.7427638924063578,
					2.1913501761579894,
					2.94908858176684,
					-3.2216194578246977,
					0.7911648790107378,
					7.078417011039323,
					1.9459005453025304,
					-1.4770755473313324
				],
				[
					0.46674869151848136,
					-2.6699669362646077,
					-2.2862148716765684,
					-4.998638135026255,
					-4.400378103751725,
					4.408026748296631,
					5.807920278754908,
					6.553961570723805,
					4.747412260577019
				],
				[
					-0.6702131586960786,
					6.408793452016836,
					2.0679086432742753,
					-7.340287004010293,
					-0.6756750860900371,
					-1.7105554994892762,
					-6.67182464753579,
					4.6329071610394985,
					3.759550517455361
				],
				[
					0.9322074318587802,
					4.777208699067776,
					4.135949384441737,
					5.99175141863557,
					-1.4217888334166533,
					-4.286407451104511,
					3.0467121464091957,
					4.23241313882634,
					5.24396312802122
				],
				[
					-0.5206647876509798,
					-0.4388635024956119,
					0.03375204393007435,
					-0.5202324083316275,
					-0.8123186907830114,
					-0.7315462018055868,
					-0.5359778743805211,
					-0.9737319140463735,
					-0.7527286942358516
				],
				[
					-0.9137361795102751,
					7.3964471349625125,
					-2.221666955601716,
					-0.010376151521340997,
					7.274401241809321,
					2.3663699194281875,
					-0.02938360924446613,
					0.5425859018351613,
					0.8821394933935598
				],
				[
					0.21430866525855227,
					0.9126892066996034,
					0.7360413655062524,
					-0.32888304778009886,
					-0.19894610962655548,
					-0.7895106653039203,
					0.8440772482084052,
					-0.19035215666741542,
					0.8338489292520088
				]
			]
		}
	],
	"biases": [
		{
			"rows": 1,
			"columns": 9,
			"data": [
				[
					-6.102585354277948,
					4.334427638610411,
					-3.3655234825616875,
					-13.59555690128408,
					1.7426619435786577,
					14.116010954319455,
					-8.05954075755001,
					-12.112766266839934,
					-9.352795614558627
				]
			]
		},
		{
			"rows": 1,
			"columns": 9,
			"data": [
				[
					-1.2115520690816521,
					405.8055690674763,
					416.71682464749944,
					419.10908355916837,
					417.34160342503384,
					421.63054418853665,
					415.39635265693465,
					406.51223597813686,
					410.3832052399347
				]
			]
		}
	]
}